Language model created by QuickLM on Mon Sep 25 01:32:39 EDT 2017
Copyright (c) 1996-2010 Carnegie Mellon University and Alexander I. Rudnicky

The model is in standard ARPA format, designed by Doug Paul while he was at MITRE.

The code that was used to produce this language model is available in Open Source.
Please visit http://www.speech.cs.cmu.edu/tools/ for more information

The (fixed) discount mass is 0.5. The backoffs are computed using the ratio method.
This model based on a corpus of 51 sentences and 107 words

\data\
ngram 1=107
ngram 2=158
ngram 3=120

\1-grams:
-0.9418 </s> -0.3010
-0.9418 <s> -0.2472
-2.3483 A -0.2981
-2.6493 ALARM -0.2483
-2.6493 AM -0.3001
-2.6493 AN -0.3001
-2.3483 ARE -0.2991
-2.6493 BAKA -0.2483
-2.6493 BILLION -0.3001
-2.6493 BITCH -0.2483
-2.6493 BYE -0.2483
-2.6493 CALIFORNIA -0.2483
-2.6493 CANADA -0.2483
-2.6493 CATS -0.2483
-1.9504 CHECK -0.2961
-2.6493 COMPUTERS -0.2483
-2.3483 CONNECTED -0.2483
-2.6493 DAYS -0.2483
-2.6493 DOGS -0.2483
-2.6493 EIGHT -0.3001
-2.6493 EIGHTEEN -0.3001
-2.6493 EIGHTY -0.3001
-2.6493 ELEVEN -0.3001
-2.6493 EMAIL -0.2483
-2.6493 EVENTS -0.2483
-2.6493 FIFTEEN -0.3001
-2.6493 FIFTY -0.3001
-2.6493 FIVE -0.3001
-2.6493 FOR -0.2483
-2.6493 FORTY -0.3001
-2.6493 FOUR -0.3001
-2.6493 FOURTEEN -0.3001
-2.6493 FREMONT -0.2483
-2.6493 FUCK -0.3001
-2.6493 GATS -0.2483
-2.6493 GOOD -0.3001
-2.6493 HEY -0.3001
-2.6493 HI -0.2483
-2.6493 HISTORY -0.2483
-2.6493 HOURS -0.2483
-2.6493 HOW -0.2991
-2.6493 HUNDRED -0.3001
-2.6493 I -0.2483
-2.3483 IS -0.2981
-2.6493 JOKE -0.2483
-2.3483 LIGHTS -0.2483
-2.6493 LONDON -0.2483
-2.3483 M -0.2483
-2.6493 ME -0.2991
-2.6493 MESSAGE -0.2483
-2.6493 MILLION -0.3001
-2.6493 MINUTES -0.2483
-2.6493 MONTHS -0.2483
-2.6493 MUSIC -0.2483
-2.6493 NAME -0.2483
-2.6493 NEVER -0.2483
-2.6493 NEW -0.3001
-2.6493 NINE -0.3001
-2.6493 NINETEEN -0.2483
-2.6493 NINETY -0.2483
-2.6493 NO -0.2483
-2.6493 NOT -0.2483
-2.6493 OFF -0.2991
-2.6493 ON -0.2991
-2.6493 ONE -0.3001
-2.6493 OPEN -0.3001
-2.6493 P -0.2991
-2.6493 PARIS -0.2483
-2.6493 PLAY -0.3001
-2.6493 SEARCH -0.3001
-2.6493 SECONDS -0.2483
-2.1722 SEND -0.2981
-2.3483 SET -0.2991
-2.6493 SEVEN -0.3001
-2.6493 SEVENTEEN -0.3001
-2.6493 SEVENTY -0.3001
-2.6493 SHIT -0.3001
-2.6493 SIX -0.3001
-2.6493 SIXTEEN -0.3001
-2.6493 SIXTY -0.3001
-2.6493 SMS -0.2483
-2.6493 TELL -0.3001
-2.6493 TEMPERATURE -0.2483
-2.6493 TEN -0.2483
-2.6493 THE -0.3001
-2.6493 THIRTEEN -0.3001
-2.6493 THIRTY -0.3001
-2.6493 THOUSAND -0.3001
-2.6493 THREE -0.3001
-2.6493 TIMER -0.2483
-2.6493 TRAFFIC -0.2483
-2.6493 TRILLION -0.2483
-2.3483 TURN -0.2991
-2.6493 TWELVE -0.3001
-2.6493 TWENTY -0.3001
-2.6493 TWO -0.3001
-2.6493 USER -0.2991
-2.6493 WEATHER -0.2483
-2.6493 WEB -0.3001
-2.6493 WEEKS -0.2483
-2.6493 WHAT'S -0.3001
-2.6493 WHERE -0.2991
-2.3483 WHO -0.2971
-2.6493 YEARS -0.2483
-2.6493 YORK -0.2483
-2.3483 YOU -0.2483
-2.6493 YOUR -0.3001

\2-grams:
-2.0086 <s> A -0.1761
-2.0086 <s> AM 0.0000
-2.0086 <s> CALIFORNIA 0.0000
-2.0086 <s> CANADA 0.0000
-2.0086 <s> CATS 0.0000
-1.3096 <s> CHECK 0.0000
-2.0086 <s> COMPUTERS 0.0000
-2.0086 <s> DAYS 0.0000
-2.0086 <s> DOGS 0.0000
-2.0086 <s> ELEVEN 0.0000
-2.0086 <s> FREMONT 0.0000
-2.0086 <s> FUCK 0.0000
-2.0086 <s> GOOD 0.0000
-2.0086 <s> HEY 0.0000
-2.0086 <s> HI 0.0000
-2.0086 <s> HOURS 0.0000
-2.0086 <s> HOW 0.0000
-2.0086 <s> HUNDRED 0.0000
-2.0086 <s> LONDON 0.0000
-2.0086 <s> MINUTES 0.0000
-2.0086 <s> MONTHS 0.0000
-2.0086 <s> NEVER 0.0000
-2.0086 <s> NEW 0.0000
-2.0086 <s> NO 0.0000
-2.0086 <s> NOT 0.0000
-2.0086 <s> ONE 0.0000
-2.0086 <s> OPEN 0.0000
-2.0086 <s> P 0.0000
-2.0086 <s> PARIS 0.0000
-2.0086 <s> PLAY 0.0000
-2.0086 <s> SEARCH 0.0000
-2.0086 <s> SECONDS 0.0000
-1.5315 <s> SEND 0.0000
-1.7076 <s> SET 0.0000
-2.0086 <s> TELL 0.0000
-1.7076 <s> TURN 0.0000
-2.0086 <s> TWENTY 0.0000
-2.0086 <s> WEEKS 0.0000
-2.0086 <s> WHAT'S 0.0000
-2.0086 <s> WHERE 0.0000
-1.7076 <s> WHO 0.0000
-2.0086 <s> YEARS 0.0000
-0.6021 A JOKE 0.0000
-0.6021 A M 0.0000
-0.3010 ALARM </s> -0.3010
-0.3010 AM I 0.0000
-0.3010 AN ALARM 0.0000
-0.3010 ARE YOU 0.0000
-0.3010 BAKA </s> -0.3010
-0.3010 BILLION TRILLION 0.0000
-0.3010 BITCH </s> -0.3010
-0.3010 BYE </s> -0.3010
-0.3010 CALIFORNIA </s> -0.3010
-0.3010 CANADA </s> -0.3010
-0.3010 CATS </s> -0.3010
-1.0000 CHECK EVENTS 0.0000
-1.0000 CHECK HISTORY 0.0000
-1.0000 CHECK TEMPERATURE 0.0000
-1.0000 CHECK TRAFFIC 0.0000
-1.0000 CHECK WEATHER 0.0000
-0.3010 COMPUTERS </s> -0.3010
-0.3010 CONNECTED </s> -0.3010
-0.3010 DAYS </s> -0.3010
-0.3010 DOGS </s> -0.3010
-0.3010 EIGHT NINE 0.0000
-0.3010 EIGHTEEN NINETEEN 0.0000
-0.3010 EIGHTY NINETY 0.0000
-0.3010 ELEVEN TWELVE 0.0000
-0.3010 EMAIL </s> -0.3010
-0.3010 EVENTS </s> -0.3010
-0.3010 FIFTEEN SIXTEEN 0.0000
-0.3010 FIFTY SIXTY 0.0000
-0.3010 FIVE SIX 0.0000
-0.3010 FOR </s> -0.3010
-0.3010 FORTY FIFTY 0.0000
-0.3010 FOUR FIVE 0.0000
-0.3010 FOURTEEN FIFTEEN 0.0000
-0.3010 FREMONT </s> -0.3010
-0.3010 FUCK SHIT 0.0000
-0.3010 GATS </s> -0.3010
-0.3010 GOOD BYE 0.0000
-0.3010 HEY BAKA 0.0000
-0.3010 HI </s> -0.3010
-0.3010 HISTORY </s> -0.3010
-0.3010 HOURS </s> -0.3010
-0.3010 HOW ARE 0.0000
-0.3010 HUNDRED THOUSAND 0.0000
-0.3010 I </s> -0.3010
-0.6021 IS CONNECTED 0.0000
-0.6021 IS USER 0.0000
-0.3010 JOKE </s> -0.3010
-0.3010 LIGHTS </s> -0.3010
-0.3010 LONDON </s> -0.3010
-0.3010 M </s> -0.3010
-0.3010 ME A -0.1761
-0.3010 MESSAGE </s> -0.3010
-0.3010 MILLION BILLION 0.0000
-0.3010 MINUTES </s> -0.3010
-0.3010 MONTHS </s> -0.3010
-0.3010 MUSIC </s> -0.3010
-0.3010 NAME </s> -0.3010
-0.3010 NEVER </s> -0.3010
-0.3010 NEW YORK 0.0000
-0.3010 NINE TEN 0.0000
-0.3010 NINETEEN </s> -0.3010
-0.3010 NINETY </s> -0.3010
-0.3010 NO </s> -0.3010
-0.3010 NOT </s> -0.3010
-0.3010 OFF LIGHTS 0.0000
-0.3010 ON LIGHTS 0.0000
-0.3010 ONE TWO 0.0000
-0.3010 OPEN GATS 0.0000
-0.3010 P M 0.0000
-0.3010 PARIS </s> -0.3010
-0.3010 PLAY MUSIC 0.0000
-0.3010 SEARCH THE 0.0000
-0.3010 SECONDS </s> -0.3010
-0.7782 SEND EMAIL 0.0000
-0.7782 SEND MESSAGE 0.0000
-0.7782 SEND SMS 0.0000
-0.6021 SET AN 0.0000
-0.6021 SET TIMER 0.0000
-0.3010 SEVEN EIGHT 0.0000
-0.3010 SEVENTEEN EIGHTEEN 0.0000
-0.3010 SEVENTY EIGHTY 0.0000
-0.3010 SHIT BITCH 0.0000
-0.3010 SIX SEVEN 0.0000
-0.3010 SIXTEEN SEVENTEEN 0.0000
-0.3010 SIXTY SEVENTY 0.0000
-0.3010 SMS </s> -0.3010
-0.3010 TELL ME 0.0000
-0.3010 TEMPERATURE </s> -0.3010
-0.3010 TEN </s> -0.3010
-0.3010 THE WEB 0.0000
-0.3010 THIRTEEN FOURTEEN 0.0000
-0.3010 THIRTY FORTY 0.0000
-0.3010 THOUSAND MILLION 0.0000
-0.3010 THREE FOUR 0.0000
-0.3010 TIMER </s> -0.3010
-0.3010 TRAFFIC </s> -0.3010
-0.3010 TRILLION </s> -0.3010
-0.6021 TURN OFF 0.0000
-0.6021 TURN ON 0.0000
-0.3010 TWELVE THIRTEEN 0.0000
-0.3010 TWENTY THIRTY 0.0000
-0.3010 TWO THREE 0.0000
-0.3010 USER CONNECTED 0.0000
-0.3010 WEATHER </s> -0.3010
-0.3010 WEB FOR 0.0000
-0.3010 WEEKS </s> -0.3010
-0.3010 WHAT'S YOUR 0.0000
-0.3010 WHERE IS -0.1761
-0.6021 WHO ARE 0.0000
-0.6021 WHO IS -0.1761
-0.3010 YEARS </s> -0.3010
-0.3010 YORK </s> -0.3010
-0.3010 YOU </s> -0.3010
-0.3010 YOUR NAME 0.0000

\3-grams:
-0.3010 <s> A M
-0.3010 <s> AM I
-0.3010 <s> CALIFORNIA </s>
-0.3010 <s> CANADA </s>
-0.3010 <s> CATS </s>
-1.0000 <s> CHECK EVENTS
-1.0000 <s> CHECK HISTORY
-1.0000 <s> CHECK TEMPERATURE
-1.0000 <s> CHECK TRAFFIC
-1.0000 <s> CHECK WEATHER
-0.3010 <s> COMPUTERS </s>
-0.3010 <s> DAYS </s>
-0.3010 <s> DOGS </s>
-0.3010 <s> ELEVEN TWELVE
-0.3010 <s> FREMONT </s>
-0.3010 <s> FUCK SHIT
-0.3010 <s> GOOD BYE
-0.3010 <s> HEY BAKA
-0.3010 <s> HI </s>
-0.3010 <s> HOURS </s>
-0.3010 <s> HOW ARE
-0.3010 <s> HUNDRED THOUSAND
-0.3010 <s> LONDON </s>
-0.3010 <s> MINUTES </s>
-0.3010 <s> MONTHS </s>
-0.3010 <s> NEVER </s>
-0.3010 <s> NEW YORK
-0.3010 <s> NO </s>
-0.3010 <s> NOT </s>
-0.3010 <s> ONE TWO
-0.3010 <s> OPEN GATS
-0.3010 <s> P M
-0.3010 <s> PARIS </s>
-0.3010 <s> PLAY MUSIC
-0.3010 <s> SEARCH THE
-0.3010 <s> SECONDS </s>
-0.7782 <s> SEND EMAIL
-0.7782 <s> SEND MESSAGE
-0.7782 <s> SEND SMS
-0.6021 <s> SET AN
-0.6021 <s> SET TIMER
-0.3010 <s> TELL ME
-0.6021 <s> TURN OFF
-0.6021 <s> TURN ON
-0.3010 <s> TWENTY THIRTY
-0.3010 <s> WEEKS </s>
-0.3010 <s> WHAT'S YOUR
-0.3010 <s> WHERE IS
-0.6021 <s> WHO ARE
-0.6021 <s> WHO IS
-0.3010 <s> YEARS </s>
-0.3010 A JOKE </s>
-0.3010 A M </s>
-0.3010 AM I </s>
-0.3010 AN ALARM </s>
-0.3010 ARE YOU </s>
-0.3010 BILLION TRILLION </s>
-0.3010 CHECK EVENTS </s>
-0.3010 CHECK HISTORY </s>
-0.3010 CHECK TEMPERATURE </s>
-0.3010 CHECK TRAFFIC </s>
-0.3010 CHECK WEATHER </s>
-0.3010 EIGHT NINE TEN
-0.3010 EIGHTEEN NINETEEN </s>
-0.3010 EIGHTY NINETY </s>
-0.3010 ELEVEN TWELVE THIRTEEN
-0.3010 FIFTEEN SIXTEEN SEVENTEEN
-0.3010 FIFTY SIXTY SEVENTY
-0.3010 FIVE SIX SEVEN
-0.3010 FORTY FIFTY SIXTY
-0.3010 FOUR FIVE SIX
-0.3010 FOURTEEN FIFTEEN SIXTEEN
-0.3010 FUCK SHIT BITCH
-0.3010 GOOD BYE </s>
-0.3010 HEY BAKA </s>
-0.3010 HOW ARE YOU
-0.3010 HUNDRED THOUSAND MILLION
-0.3010 IS CONNECTED </s>
-0.3010 IS USER CONNECTED
-0.3010 ME A JOKE
-0.3010 MILLION BILLION TRILLION
-0.3010 NEW YORK </s>
-0.3010 NINE TEN </s>
-0.3010 OFF LIGHTS </s>
-0.3010 ON LIGHTS </s>
-0.3010 ONE TWO THREE
-0.3010 OPEN GATS </s>
-0.3010 P M </s>
-0.3010 PLAY MUSIC </s>
-0.3010 SEARCH THE WEB
-0.3010 SEND EMAIL </s>
-0.3010 SEND MESSAGE </s>
-0.3010 SEND SMS </s>
-0.3010 SET AN ALARM
-0.3010 SET TIMER </s>
-0.3010 SEVEN EIGHT NINE
-0.3010 SEVENTEEN EIGHTEEN NINETEEN
-0.3010 SEVENTY EIGHTY NINETY
-0.3010 SHIT BITCH </s>
-0.3010 SIX SEVEN EIGHT
-0.3010 SIXTEEN SEVENTEEN EIGHTEEN
-0.3010 SIXTY SEVENTY EIGHTY
-0.3010 TELL ME A
-0.3010 THE WEB FOR
-0.3010 THIRTEEN FOURTEEN FIFTEEN
-0.3010 THIRTY FORTY FIFTY
-0.3010 THOUSAND MILLION BILLION
-0.3010 THREE FOUR FIVE
-0.3010 TURN OFF LIGHTS
-0.3010 TURN ON LIGHTS
-0.3010 TWELVE THIRTEEN FOURTEEN
-0.3010 TWENTY THIRTY FORTY
-0.3010 TWO THREE FOUR
-0.3010 USER CONNECTED </s>
-0.3010 WEB FOR </s>
-0.3010 WHAT'S YOUR NAME
-0.3010 WHERE IS USER
-0.3010 WHO ARE YOU
-0.3010 WHO IS CONNECTED
-0.3010 YOUR NAME </s>

\end\
