Language model created by QuickLM on Tue Sep 19 16:04:56 EDT 2017
Copyright (c) 1996-2010 Carnegie Mellon University and Alexander I. Rudnicky

The model is in standard ARPA format, designed by Doug Paul while he was at MITRE.

The code that was used to produce this language model is available in Open Source.
Please visit http://www.speech.cs.cmu.edu/tools/ for more information

The (fixed) discount mass is 0.5. The backoffs are computed using the ratio method.
This model based on a corpus of 63 sentences and 76 words

\data\
ngram 1=76
ngram 2=138
ngram 3=85

\1-grams:
-0.8280 </s> -0.3010
-0.8280 <s> -0.2300
-2.6274 ALARM -0.2312
-2.6274 AM -0.2312
-2.6274 AN -0.3000
-2.6274 BILLION -0.2312
-1.9284 CHECK -0.2959
-2.3263 CONNECTED -0.2312
-2.6274 DAYS -0.2312
-2.6274 EIGHT -0.2312
-2.6274 EIGHTEEN -0.2312
-2.6274 EIGHTY -0.2312
-2.6274 ELEVEN -0.2312
-2.6274 EMAIL -0.2312
-2.6274 EVENTS -0.2312
-2.6274 FIFTEEN -0.2312
-2.6274 FIFTY -0.2312
-2.6274 FIVE -0.2312
-2.6274 FOR -0.2312
-2.6274 FORTY -0.2312
-2.6274 FOUR -0.2312
-2.6274 FOURTEEN -0.2312
-2.6274 HISTORY -0.2312
-2.6274 HOURS -0.2312
-2.6274 HUNDRED -0.2312
-2.3263 IS -0.2990
-2.3263 LIGHTS -0.2312
-2.6274 MESSAGE -0.2312
-2.6274 MILLION -0.2312
-2.6274 MINUTES -0.2312
-2.6274 MONTHS -0.2312
-2.6274 MUSIC -0.2312
-2.6274 N'T -0.2312
-2.6274 NEVER -0.2312
-2.6274 NINE -0.2312
-2.6274 NINETEEN -0.2312
-2.6274 NINETY -0.2312
-2.6274 NO -0.2312
-2.6274 NONE -0.2312
-2.6274 NOT -0.2312
-2.3263 OFF -0.2288
-2.6274 ON -0.2990
-2.6274 ONE -0.2312
-2.6274 PLAY -0.3000
-2.6274 PM -0.2312
-2.6274 SEARCH -0.3000
-2.6274 SECONDS -0.2312
-2.1502 SEND -0.2979
-2.3263 SET -0.2990
-2.6274 SEVEN -0.2312
-2.6274 SEVENTEEN -0.2312
-2.6274 SEVENTY -0.2312
-2.6274 SIX -0.2312
-2.6274 SIXTEEN -0.2312
-2.6274 SIXTY -0.2312
-2.6274 SMS -0.2312
-2.6274 TEMPERATURE -0.2312
-2.6274 TEN -0.2312
-2.6274 THE -0.3000
-2.6274 THIRTEEN -0.2312
-2.6274 THIRTY -0.2312
-2.6274 THOUSAND -0.2312
-2.6274 THREE -0.2312
-2.6274 TIMER -0.2312
-2.6274 TRAFFIC -0.2312
-2.6274 TRILLION -0.2312
-2.3263 TURN -0.2979
-2.6274 TWELVE -0.2312
-2.6274 TWENTY -0.2312
-2.6274 TWO -0.2312
-2.6274 WEATHER -0.2312
-2.6274 WEB -0.3000
-2.6274 WEEKS -0.2312
-2.6274 WHERE -0.2990
-2.6274 WHO -0.2990
-2.6274 YEARS -0.2312

\2-grams:
-2.1004 <s> AM 0.0000
-2.1004 <s> BILLION 0.0000
-1.4014 <s> CHECK 0.0000
-2.1004 <s> DAYS 0.0000
-2.1004 <s> EIGHT 0.0000
-2.1004 <s> EIGHTEEN 0.0000
-2.1004 <s> EIGHTY 0.0000
-2.1004 <s> ELEVEN 0.0000
-2.1004 <s> FIFTEEN 0.0000
-2.1004 <s> FIFTY 0.0000
-2.1004 <s> FIVE 0.0000
-2.1004 <s> FORTY 0.0000
-2.1004 <s> FOUR 0.0000
-2.1004 <s> FOURTEEN 0.0000
-2.1004 <s> HOURS 0.0000
-2.1004 <s> HUNDRED 0.0000
-2.1004 <s> MILLION 0.0000
-2.1004 <s> MINUTES 0.0000
-2.1004 <s> MONTHS 0.0000
-2.1004 <s> N'T 0.0000
-2.1004 <s> NEVER 0.0000
-2.1004 <s> NINE 0.0000
-2.1004 <s> NINETEEN 0.0000
-2.1004 <s> NINETY 0.0000
-2.1004 <s> NO 0.0000
-2.1004 <s> NONE 0.0000
-2.1004 <s> NOT 0.0000
-2.1004 <s> OFF -0.1761
-2.1004 <s> ONE 0.0000
-2.1004 <s> PLAY 0.0000
-2.1004 <s> PM 0.0000
-2.1004 <s> SEARCH 0.0000
-2.1004 <s> SECONDS 0.0000
-1.6232 <s> SEND 0.0000
-1.7993 <s> SET 0.0000
-2.1004 <s> SEVEN 0.0000
-2.1004 <s> SEVENTEEN 0.0000
-2.1004 <s> SEVENTY 0.0000
-2.1004 <s> SIX 0.0000
-2.1004 <s> SIXTEEN 0.0000
-2.1004 <s> SIXTY 0.0000
-2.1004 <s> TEN 0.0000
-2.1004 <s> THIRTEEN 0.0000
-2.1004 <s> THIRTY 0.0000
-2.1004 <s> THOUSAND 0.0000
-2.1004 <s> THREE 0.0000
-2.1004 <s> TRILLION 0.0000
-1.7993 <s> TURN 0.0000
-2.1004 <s> TWELVE 0.0000
-2.1004 <s> TWENTY 0.0000
-2.1004 <s> TWO 0.0000
-2.1004 <s> WEEKS 0.0000
-2.1004 <s> WHERE 0.0000
-2.1004 <s> WHO 0.0000
-2.1004 <s> YEARS 0.0000
-0.3010 ALARM </s> -0.3010
-0.3010 AM </s> -0.3010
-0.3010 AN ALARM 0.0000
-0.3010 BILLION </s> -0.3010
-1.0000 CHECK EVENTS 0.0000
-1.0000 CHECK HISTORY 0.0000
-1.0000 CHECK TEMPERATURE 0.0000
-1.0000 CHECK TRAFFIC 0.0000
-1.0000 CHECK WEATHER 0.0000
-0.3010 CONNECTED </s> -0.3010
-0.3010 DAYS </s> -0.3010
-0.3010 EIGHT </s> -0.3010
-0.3010 EIGHTEEN </s> -0.3010
-0.3010 EIGHTY </s> -0.3010
-0.3010 ELEVEN </s> -0.3010
-0.3010 EMAIL </s> -0.3010
-0.3010 EVENTS </s> -0.3010
-0.3010 FIFTEEN </s> -0.3010
-0.3010 FIFTY </s> -0.3010
-0.3010 FIVE </s> -0.3010
-0.3010 FOR </s> -0.3010
-0.3010 FORTY </s> -0.3010
-0.3010 FOUR </s> -0.3010
-0.3010 FOURTEEN </s> -0.3010
-0.3010 HISTORY </s> -0.3010
-0.3010 HOURS </s> -0.3010
-0.3010 HUNDRED </s> -0.3010
-0.3010 IS CONNECTED 0.0000
-0.3010 LIGHTS </s> -0.3010
-0.3010 MESSAGE </s> -0.3010
-0.3010 MILLION </s> -0.3010
-0.3010 MINUTES </s> -0.3010
-0.3010 MONTHS </s> -0.3010
-0.3010 MUSIC </s> -0.3010
-0.3010 N'T </s> -0.3010
-0.3010 NEVER </s> -0.3010
-0.3010 NINE </s> -0.3010
-0.3010 NINETEEN </s> -0.3010
-0.3010 NINETY </s> -0.3010
-0.3010 NO </s> -0.3010
-0.3010 NONE </s> -0.3010
-0.3010 NOT </s> -0.3010
-0.6021 OFF </s> -0.3010
-0.6021 OFF LIGHTS 0.0000
-0.3010 ON LIGHTS 0.0000
-0.3010 ONE </s> -0.3010
-0.3010 PLAY MUSIC 0.0000
-0.3010 PM </s> -0.3010
-0.3010 SEARCH THE 0.0000
-0.3010 SECONDS </s> -0.3010
-0.7782 SEND EMAIL 0.0000
-0.7782 SEND MESSAGE 0.0000
-0.7782 SEND SMS 0.0000
-0.6021 SET AN 0.0000
-0.6021 SET TIMER 0.0000
-0.3010 SEVEN </s> -0.3010
-0.3010 SEVENTEEN </s> -0.3010
-0.3010 SEVENTY </s> -0.3010
-0.3010 SIX </s> -0.3010
-0.3010 SIXTEEN </s> -0.3010
-0.3010 SIXTY </s> -0.3010
-0.3010 SMS </s> -0.3010
-0.3010 TEMPERATURE </s> -0.3010
-0.3010 TEN </s> -0.3010
-0.3010 THE WEB 0.0000
-0.3010 THIRTEEN </s> -0.3010
-0.3010 THIRTY </s> -0.3010
-0.3010 THOUSAND </s> -0.3010
-0.3010 THREE </s> -0.3010
-0.3010 TIMER </s> -0.3010
-0.3010 TRAFFIC </s> -0.3010
-0.3010 TRILLION </s> -0.3010
-0.6021 TURN OFF -0.1761
-0.6021 TURN ON 0.0000
-0.3010 TWELVE </s> -0.3010
-0.3010 TWENTY </s> -0.3010
-0.3010 TWO </s> -0.3010
-0.3010 WEATHER </s> -0.3010
-0.3010 WEB FOR 0.0000
-0.3010 WEEKS </s> -0.3010
-0.3010 WHERE IS 0.0000
-0.3010 WHO IS 0.0000
-0.3010 YEARS </s> -0.3010

\3-grams:
-0.3010 <s> AM </s>
-0.3010 <s> BILLION </s>
-1.0000 <s> CHECK EVENTS
-1.0000 <s> CHECK HISTORY
-1.0000 <s> CHECK TEMPERATURE
-1.0000 <s> CHECK TRAFFIC
-1.0000 <s> CHECK WEATHER
-0.3010 <s> DAYS </s>
-0.3010 <s> EIGHT </s>
-0.3010 <s> EIGHTEEN </s>
-0.3010 <s> EIGHTY </s>
-0.3010 <s> ELEVEN </s>
-0.3010 <s> FIFTEEN </s>
-0.3010 <s> FIFTY </s>
-0.3010 <s> FIVE </s>
-0.3010 <s> FORTY </s>
-0.3010 <s> FOUR </s>
-0.3010 <s> FOURTEEN </s>
-0.3010 <s> HOURS </s>
-0.3010 <s> HUNDRED </s>
-0.3010 <s> MILLION </s>
-0.3010 <s> MINUTES </s>
-0.3010 <s> MONTHS </s>
-0.3010 <s> N'T </s>
-0.3010 <s> NEVER </s>
-0.3010 <s> NINE </s>
-0.3010 <s> NINETEEN </s>
-0.3010 <s> NINETY </s>
-0.3010 <s> NO </s>
-0.3010 <s> NONE </s>
-0.3010 <s> NOT </s>
-0.3010 <s> OFF </s>
-0.3010 <s> ONE </s>
-0.3010 <s> PLAY MUSIC
-0.3010 <s> PM </s>
-0.3010 <s> SEARCH THE
-0.3010 <s> SECONDS </s>
-0.7782 <s> SEND EMAIL
-0.7782 <s> SEND MESSAGE
-0.7782 <s> SEND SMS
-0.6021 <s> SET AN
-0.6021 <s> SET TIMER
-0.3010 <s> SEVEN </s>
-0.3010 <s> SEVENTEEN </s>
-0.3010 <s> SEVENTY </s>
-0.3010 <s> SIX </s>
-0.3010 <s> SIXTEEN </s>
-0.3010 <s> SIXTY </s>
-0.3010 <s> TEN </s>
-0.3010 <s> THIRTEEN </s>
-0.3010 <s> THIRTY </s>
-0.3010 <s> THOUSAND </s>
-0.3010 <s> THREE </s>
-0.3010 <s> TRILLION </s>
-0.6021 <s> TURN OFF
-0.6021 <s> TURN ON
-0.3010 <s> TWELVE </s>
-0.3010 <s> TWENTY </s>
-0.3010 <s> TWO </s>
-0.3010 <s> WEEKS </s>
-0.3010 <s> WHERE IS
-0.3010 <s> WHO IS
-0.3010 <s> YEARS </s>
-0.3010 AN ALARM </s>
-0.3010 CHECK EVENTS </s>
-0.3010 CHECK HISTORY </s>
-0.3010 CHECK TEMPERATURE </s>
-0.3010 CHECK TRAFFIC </s>
-0.3010 CHECK WEATHER </s>
-0.3010 IS CONNECTED </s>
-0.3010 OFF LIGHTS </s>
-0.3010 ON LIGHTS </s>
-0.3010 PLAY MUSIC </s>
-0.3010 SEARCH THE WEB
-0.3010 SEND EMAIL </s>
-0.3010 SEND MESSAGE </s>
-0.3010 SEND SMS </s>
-0.3010 SET AN ALARM
-0.3010 SET TIMER </s>
-0.3010 THE WEB FOR
-0.3010 TURN OFF LIGHTS
-0.3010 TURN ON LIGHTS
-0.3010 WEB FOR </s>
-0.3010 WHERE IS CONNECTED
-0.3010 WHO IS CONNECTED

\end\
