Language model created by QuickLM on Fri Sep 15 22:54:48 EDT 2017
Copyright (c) 1996-2010 Carnegie Mellon University and Alexander I. Rudnicky

The model is in standard ARPA format, designed by Doug Paul while he was at MITRE.

The code that was used to produce this language model is available in Open Source.
Please visit http://www.speech.cs.cmu.edu/tools/ for more information

The (fixed) discount mass is 0.5. The backoffs are computed using the ratio method.
This model based on a corpus of 16 sentences and 30 words

\data\
ngram 1=30
ngram 2=44
ngram 3=38

\1-grams:
-0.9482 </s> -0.3010
-0.9482 <s> -0.2491
-2.1523 ALARM -0.2491
-2.1523 AN -0.2980
-1.4533 CHECK -0.2855
-1.8513 CONNECTED -0.2491
-2.1523 EMAIL -0.2491
-2.1523 EVENTS -0.2491
-2.1523 FOR -0.2491
-2.1523 HISTORY -0.2491
-1.8513 IS -0.2949
-1.8513 LIGHTS -0.2491
-2.1523 MESSAGE -0.2491
-2.1523 MUSIC -0.2491
-2.1523 OFF -0.2949
-2.1523 ON -0.2949
-2.1523 PLAY -0.2980
-2.1523 SEARCH -0.2980
-1.6752 SEND -0.2918
-1.8513 SET -0.2949
-2.1523 SMS -0.2491
-2.1523 TEMPERATURE -0.2491
-2.1523 THE -0.2980
-2.1523 TIMER -0.2491
-2.1523 TRAFFIC -0.2491
-1.8513 TURN -0.2949
-2.1523 WEATHER -0.2491
-2.1523 WEB -0.2980
-2.1523 WHERE -0.2949
-2.1523 WHO -0.2949

\2-grams:
-0.8062 <s> CHECK 0.0000
-1.5051 <s> PLAY 0.0000
-1.5051 <s> SEARCH 0.0000
-1.0280 <s> SEND 0.0000
-1.2041 <s> SET 0.0000
-1.2041 <s> TURN 0.0000
-1.5051 <s> WHERE 0.0000
-1.5051 <s> WHO 0.0000
-0.3010 ALARM </s> -0.3010
-0.3010 AN ALARM 0.0000
-1.0000 CHECK EVENTS 0.0000
-1.0000 CHECK HISTORY 0.0000
-1.0000 CHECK TEMPERATURE 0.0000
-1.0000 CHECK TRAFFIC 0.0000
-1.0000 CHECK WEATHER 0.0000
-0.3010 CONNECTED </s> -0.3010
-0.3010 EMAIL </s> -0.3010
-0.3010 EVENTS </s> -0.3010
-0.3010 FOR </s> -0.3010
-0.3010 HISTORY </s> -0.3010
-0.3010 IS CONNECTED 0.0000
-0.3010 LIGHTS </s> -0.3010
-0.3010 MESSAGE </s> -0.3010
-0.3010 MUSIC </s> -0.3010
-0.3010 OFF LIGHTS 0.0000
-0.3010 ON LIGHTS 0.0000
-0.3010 PLAY MUSIC 0.0000
-0.3010 SEARCH THE 0.0000
-0.7782 SEND EMAIL 0.0000
-0.7782 SEND MESSAGE 0.0000
-0.7782 SEND SMS 0.0000
-0.6021 SET AN 0.0000
-0.6021 SET TIMER 0.0000
-0.3010 SMS </s> -0.3010
-0.3010 TEMPERATURE </s> -0.3010
-0.3010 THE WEB 0.0000
-0.3010 TIMER </s> -0.3010
-0.3010 TRAFFIC </s> -0.3010
-0.6021 TURN OFF 0.0000
-0.6021 TURN ON 0.0000
-0.3010 WEATHER </s> -0.3010
-0.3010 WEB FOR 0.0000
-0.3010 WHERE IS 0.0000
-0.3010 WHO IS 0.0000

\3-grams:
-1.0000 <s> CHECK EVENTS
-1.0000 <s> CHECK HISTORY
-1.0000 <s> CHECK TEMPERATURE
-1.0000 <s> CHECK TRAFFIC
-1.0000 <s> CHECK WEATHER
-0.3010 <s> PLAY MUSIC
-0.3010 <s> SEARCH THE
-0.7782 <s> SEND EMAIL
-0.7782 <s> SEND MESSAGE
-0.7782 <s> SEND SMS
-0.6021 <s> SET AN
-0.6021 <s> SET TIMER
-0.6021 <s> TURN OFF
-0.6021 <s> TURN ON
-0.3010 <s> WHERE IS
-0.3010 <s> WHO IS
-0.3010 AN ALARM </s>
-0.3010 CHECK EVENTS </s>
-0.3010 CHECK HISTORY </s>
-0.3010 CHECK TEMPERATURE </s>
-0.3010 CHECK TRAFFIC </s>
-0.3010 CHECK WEATHER </s>
-0.3010 IS CONNECTED </s>
-0.3010 OFF LIGHTS </s>
-0.3010 ON LIGHTS </s>
-0.3010 PLAY MUSIC </s>
-0.3010 SEARCH THE WEB
-0.3010 SEND EMAIL </s>
-0.3010 SEND MESSAGE </s>
-0.3010 SEND SMS </s>
-0.3010 SET AN ALARM
-0.3010 SET TIMER </s>
-0.3010 THE WEB FOR
-0.3010 TURN OFF LIGHTS
-0.3010 TURN ON LIGHTS
-0.3010 WEB FOR </s>
-0.3010 WHERE IS CONNECTED
-0.3010 WHO IS CONNECTED

\end\
