Language model created by QuickLM on Mon Sep 25 01:50:53 EDT 2017
Copyright (c) 1996-2010 Carnegie Mellon University and Alexander I. Rudnicky

The model is in standard ARPA format, designed by Doug Paul while he was at MITRE.

The code that was used to produce this language model is available in Open Source.
Please visit http://www.speech.cs.cmu.edu/tools/ for more information

The (fixed) discount mass is 0.5. The backoffs are computed using the ratio method.
This model based on a corpus of 50 sentences and 106 words

\data\
ngram 1=106
ngram 2=155
ngram 3=117

\1-grams:
-0.9405 </s> -0.3010
-0.9405 <s> -0.2481
-2.6395 A -0.3000
-2.6395 A.M. -0.2481
-2.6395 ALARM -0.2481
-2.6395 AN -0.3000
-2.3385 ARE -0.2990
-2.6395 BAKA -0.2481
-2.6395 BILLION -0.3000
-2.6395 BITCH -0.2481
-2.6395 BYE -0.2481
-2.6395 CALIFORNIA -0.2481
-2.6395 CANADA -0.2481
-2.6395 CATS -0.2481
-1.9405 CHECK -0.2960
-2.6395 COMPUTERS -0.2481
-2.3385 CONNECTED -0.2481
-2.6395 DAYS -0.2481
-2.6395 DOGS -0.2481
-2.6395 EIGHT -0.3000
-2.6395 EIGHTEEN -0.3000
-2.6395 EIGHTY -0.3000
-2.6395 ELEVEN -0.3000
-2.6395 EMAIL -0.2481
-2.6395 EVENTS -0.2481
-2.6395 FIFTEEN -0.3000
-2.6395 FIFTY -0.3000
-2.6395 FIVE -0.3000
-2.6395 FOR -0.2481
-2.6395 FORTY -0.3000
-2.6395 FOUR -0.3000
-2.6395 FOURTEEN -0.3000
-2.6395 FREMONT -0.2481
-2.6395 FUCK -0.3000
-2.6395 GATS -0.2481
-2.6395 GOOD -0.3000
-2.6395 HEY -0.3000
-2.6395 HI -0.2481
-2.6395 HISTORY -0.2481
-2.6395 HOURS -0.2481
-2.6395 HOW -0.2990
-2.6395 HUNDRED -0.3000
-2.6395 IN -0.2481
-2.3385 IS -0.2980
-2.6395 JOKE -0.2481
-2.3385 LIGHTS -0.2481
-2.6395 LONDON -0.2481
-2.6395 ME -0.3000
-2.6395 MESSAGE -0.2481
-2.6395 MILLION -0.3000
-2.6395 MINUTES -0.2481
-2.6395 MONTHS -0.2481
-2.6395 MUSIC -0.2481
-2.6395 NAME -0.2481
-2.6395 NEVER -0.2481
-2.6395 NEW -0.3000
-2.6395 NINE -0.3000
-2.6395 NINETEEN -0.2481
-2.6395 NINETY -0.2481
-2.6395 NO -0.2481
-2.6395 NOT -0.2481
-2.6395 OFF -0.2990
-2.6395 ON -0.2990
-2.6395 ONE -0.3000
-2.6395 OPEN -0.3000
-2.6395 P.M. -0.2481
-2.6395 PARIS -0.2481
-2.6395 PLAY -0.3000
-2.6395 SEARCH -0.3000
-2.6395 SECONDS -0.2481
-2.1624 SEND -0.2980
-2.3385 SET -0.2990
-2.6395 SEVEN -0.3000
-2.6395 SEVENTEEN -0.3000
-2.6395 SEVENTY -0.3000
-2.6395 SHIT -0.3000
-2.6395 SIX -0.3000
-2.6395 SIXTEEN -0.3000
-2.6395 SIXTY -0.3000
-2.6395 SMS -0.2481
-2.6395 TELL -0.3000
-2.6395 TEMPERATURE -0.2481
-2.6395 TEN -0.2481
-2.6395 THE -0.3000
-2.6395 THIRTEEN -0.3000
-2.6395 THIRTY -0.3000
-2.6395 THOUSAND -0.3000
-2.6395 THREE -0.3000
-2.6395 TIMER -0.2481
-2.6395 TRAFFIC -0.2481
-2.6395 TRILLION -0.2481
-2.3385 TURN -0.2990
-2.6395 TWELVE -0.3000
-2.6395 TWENTY -0.3000
-2.6395 TWO -0.3000
-2.6395 USER -0.2990
-2.6395 WEATHER -0.3000
-2.6395 WEB -0.3000
-2.6395 WEEKS -0.2481
-2.6395 WHAT'S -0.3000
-2.6395 WHERE -0.2990
-2.3385 WHO -0.2970
-2.6395 YEARS -0.2481
-2.6395 YORK -0.2481
-2.3385 YOU -0.2481
-2.6395 YOUR -0.3000

\2-grams:
-2.0000 <s> A.M. 0.0000
-2.0000 <s> CALIFORNIA 0.0000
-2.0000 <s> CANADA 0.0000
-2.0000 <s> CATS 0.0000
-1.3010 <s> CHECK 0.0000
-2.0000 <s> COMPUTERS 0.0000
-2.0000 <s> DAYS 0.0000
-2.0000 <s> DOGS 0.0000
-2.0000 <s> ELEVEN 0.0000
-2.0000 <s> FREMONT 0.0000
-2.0000 <s> FUCK 0.0000
-2.0000 <s> GOOD 0.0000
-2.0000 <s> HEY 0.0000
-2.0000 <s> HI 0.0000
-2.0000 <s> HOURS 0.0000
-2.0000 <s> HOW 0.0000
-2.0000 <s> HUNDRED 0.0000
-2.0000 <s> LONDON 0.0000
-2.0000 <s> MINUTES 0.0000
-2.0000 <s> MONTHS 0.0000
-2.0000 <s> NEVER 0.0000
-2.0000 <s> NEW 0.0000
-2.0000 <s> NO 0.0000
-2.0000 <s> NOT 0.0000
-2.0000 <s> ONE 0.0000
-2.0000 <s> OPEN 0.0000
-2.0000 <s> P.M. 0.0000
-2.0000 <s> PARIS 0.0000
-2.0000 <s> PLAY 0.0000
-2.0000 <s> SEARCH 0.0000
-2.0000 <s> SECONDS 0.0000
-1.5229 <s> SEND 0.0000
-1.6990 <s> SET 0.0000
-2.0000 <s> TELL 0.0000
-1.6990 <s> TURN 0.0000
-2.0000 <s> TWENTY 0.0000
-2.0000 <s> WEEKS 0.0000
-2.0000 <s> WHAT'S 0.0000
-2.0000 <s> WHERE 0.0000
-1.6990 <s> WHO 0.0000
-2.0000 <s> YEARS 0.0000
-0.3010 A JOKE 0.0000
-0.3010 A.M. </s> -0.3010
-0.3010 ALARM </s> -0.3010
-0.3010 AN ALARM 0.0000
-0.3010 ARE YOU 0.0000
-0.3010 BAKA </s> -0.3010
-0.3010 BILLION TRILLION 0.0000
-0.3010 BITCH </s> -0.3010
-0.3010 BYE </s> -0.3010
-0.3010 CALIFORNIA </s> -0.3010
-0.3010 CANADA </s> -0.3010
-0.3010 CATS </s> -0.3010
-1.0000 CHECK EVENTS 0.0000
-1.0000 CHECK HISTORY 0.0000
-1.0000 CHECK TEMPERATURE 0.0000
-1.0000 CHECK TRAFFIC 0.0000
-1.0000 CHECK WEATHER 0.0000
-0.3010 COMPUTERS </s> -0.3010
-0.3010 CONNECTED </s> -0.3010
-0.3010 DAYS </s> -0.3010
-0.3010 DOGS </s> -0.3010
-0.3010 EIGHT NINE 0.0000
-0.3010 EIGHTEEN NINETEEN 0.0000
-0.3010 EIGHTY NINETY 0.0000
-0.3010 ELEVEN TWELVE 0.0000
-0.3010 EMAIL </s> -0.3010
-0.3010 EVENTS </s> -0.3010
-0.3010 FIFTEEN SIXTEEN 0.0000
-0.3010 FIFTY SIXTY 0.0000
-0.3010 FIVE SIX 0.0000
-0.3010 FOR </s> -0.3010
-0.3010 FORTY FIFTY 0.0000
-0.3010 FOUR FIVE 0.0000
-0.3010 FOURTEEN FIFTEEN 0.0000
-0.3010 FREMONT </s> -0.3010
-0.3010 FUCK SHIT 0.0000
-0.3010 GATS </s> -0.3010
-0.3010 GOOD BYE 0.0000
-0.3010 HEY BAKA 0.0000
-0.3010 HI </s> -0.3010
-0.3010 HISTORY </s> -0.3010
-0.3010 HOURS </s> -0.3010
-0.3010 HOW ARE 0.0000
-0.3010 HUNDRED THOUSAND 0.0000
-0.3010 IN </s> -0.3010
-0.6021 IS CONNECTED 0.0000
-0.6021 IS USER 0.0000
-0.3010 JOKE </s> -0.3010
-0.3010 LIGHTS </s> -0.3010
-0.3010 LONDON </s> -0.3010
-0.3010 ME A 0.0000
-0.3010 MESSAGE </s> -0.3010
-0.3010 MILLION BILLION 0.0000
-0.3010 MINUTES </s> -0.3010
-0.3010 MONTHS </s> -0.3010
-0.3010 MUSIC </s> -0.3010
-0.3010 NAME </s> -0.3010
-0.3010 NEVER </s> -0.3010
-0.3010 NEW YORK 0.0000
-0.3010 NINE TEN 0.0000
-0.3010 NINETEEN </s> -0.3010
-0.3010 NINETY </s> -0.3010
-0.3010 NO </s> -0.3010
-0.3010 NOT </s> -0.3010
-0.3010 OFF LIGHTS 0.0000
-0.3010 ON LIGHTS 0.0000
-0.3010 ONE TWO 0.0000
-0.3010 OPEN GATS 0.0000
-0.3010 P.M. </s> -0.3010
-0.3010 PARIS </s> -0.3010
-0.3010 PLAY MUSIC 0.0000
-0.3010 SEARCH THE 0.0000
-0.3010 SECONDS </s> -0.3010
-0.7782 SEND EMAIL 0.0000
-0.7782 SEND MESSAGE 0.0000
-0.7782 SEND SMS 0.0000
-0.6021 SET AN 0.0000
-0.6021 SET TIMER 0.0000
-0.3010 SEVEN EIGHT 0.0000
-0.3010 SEVENTEEN EIGHTEEN 0.0000
-0.3010 SEVENTY EIGHTY 0.0000
-0.3010 SHIT BITCH 0.0000
-0.3010 SIX SEVEN 0.0000
-0.3010 SIXTEEN SEVENTEEN 0.0000
-0.3010 SIXTY SEVENTY 0.0000
-0.3010 SMS </s> -0.3010
-0.3010 TELL ME 0.0000
-0.3010 TEMPERATURE </s> -0.3010
-0.3010 TEN </s> -0.3010
-0.3010 THE WEB 0.0000
-0.3010 THIRTEEN FOURTEEN 0.0000
-0.3010 THIRTY FORTY 0.0000
-0.3010 THOUSAND MILLION 0.0000
-0.3010 THREE FOUR 0.0000
-0.3010 TIMER </s> -0.3010
-0.3010 TRAFFIC </s> -0.3010
-0.3010 TRILLION </s> -0.3010
-0.6021 TURN OFF 0.0000
-0.6021 TURN ON 0.0000
-0.3010 TWELVE THIRTEEN 0.0000
-0.3010 TWENTY THIRTY 0.0000
-0.3010 TWO THREE 0.0000
-0.3010 USER CONNECTED 0.0000
-0.3010 WEATHER IN 0.0000
-0.3010 WEB FOR 0.0000
-0.3010 WEEKS </s> -0.3010
-0.3010 WHAT'S YOUR 0.0000
-0.3010 WHERE IS -0.1761
-0.6021 WHO ARE 0.0000
-0.6021 WHO IS -0.1761
-0.3010 YEARS </s> -0.3010
-0.3010 YORK </s> -0.3010
-0.3010 YOU </s> -0.3010
-0.3010 YOUR NAME 0.0000

\3-grams:
-0.3010 <s> A.M. </s>
-0.3010 <s> CALIFORNIA </s>
-0.3010 <s> CANADA </s>
-0.3010 <s> CATS </s>
-1.0000 <s> CHECK EVENTS
-1.0000 <s> CHECK HISTORY
-1.0000 <s> CHECK TEMPERATURE
-1.0000 <s> CHECK TRAFFIC
-1.0000 <s> CHECK WEATHER
-0.3010 <s> COMPUTERS </s>
-0.3010 <s> DAYS </s>
-0.3010 <s> DOGS </s>
-0.3010 <s> ELEVEN TWELVE
-0.3010 <s> FREMONT </s>
-0.3010 <s> FUCK SHIT
-0.3010 <s> GOOD BYE
-0.3010 <s> HEY BAKA
-0.3010 <s> HI </s>
-0.3010 <s> HOURS </s>
-0.3010 <s> HOW ARE
-0.3010 <s> HUNDRED THOUSAND
-0.3010 <s> LONDON </s>
-0.3010 <s> MINUTES </s>
-0.3010 <s> MONTHS </s>
-0.3010 <s> NEVER </s>
-0.3010 <s> NEW YORK
-0.3010 <s> NO </s>
-0.3010 <s> NOT </s>
-0.3010 <s> ONE TWO
-0.3010 <s> OPEN GATS
-0.3010 <s> P.M. </s>
-0.3010 <s> PARIS </s>
-0.3010 <s> PLAY MUSIC
-0.3010 <s> SEARCH THE
-0.3010 <s> SECONDS </s>
-0.7782 <s> SEND EMAIL
-0.7782 <s> SEND MESSAGE
-0.7782 <s> SEND SMS
-0.6021 <s> SET AN
-0.6021 <s> SET TIMER
-0.3010 <s> TELL ME
-0.6021 <s> TURN OFF
-0.6021 <s> TURN ON
-0.3010 <s> TWENTY THIRTY
-0.3010 <s> WEEKS </s>
-0.3010 <s> WHAT'S YOUR
-0.3010 <s> WHERE IS
-0.6021 <s> WHO ARE
-0.6021 <s> WHO IS
-0.3010 <s> YEARS </s>
-0.3010 A JOKE </s>
-0.3010 AN ALARM </s>
-0.3010 ARE YOU </s>
-0.3010 BILLION TRILLION </s>
-0.3010 CHECK EVENTS </s>
-0.3010 CHECK HISTORY </s>
-0.3010 CHECK TEMPERATURE </s>
-0.3010 CHECK TRAFFIC </s>
-0.3010 CHECK WEATHER IN
-0.3010 EIGHT NINE TEN
-0.3010 EIGHTEEN NINETEEN </s>
-0.3010 EIGHTY NINETY </s>
-0.3010 ELEVEN TWELVE THIRTEEN
-0.3010 FIFTEEN SIXTEEN SEVENTEEN
-0.3010 FIFTY SIXTY SEVENTY
-0.3010 FIVE SIX SEVEN
-0.3010 FORTY FIFTY SIXTY
-0.3010 FOUR FIVE SIX
-0.3010 FOURTEEN FIFTEEN SIXTEEN
-0.3010 FUCK SHIT BITCH
-0.3010 GOOD BYE </s>
-0.3010 HEY BAKA </s>
-0.3010 HOW ARE YOU
-0.3010 HUNDRED THOUSAND MILLION
-0.3010 IS CONNECTED </s>
-0.3010 IS USER CONNECTED
-0.3010 ME A JOKE
-0.3010 MILLION BILLION TRILLION
-0.3010 NEW YORK </s>
-0.3010 NINE TEN </s>
-0.3010 OFF LIGHTS </s>
-0.3010 ON LIGHTS </s>
-0.3010 ONE TWO THREE
-0.3010 OPEN GATS </s>
-0.3010 PLAY MUSIC </s>
-0.3010 SEARCH THE WEB
-0.3010 SEND EMAIL </s>
-0.3010 SEND MESSAGE </s>
-0.3010 SEND SMS </s>
-0.3010 SET AN ALARM
-0.3010 SET TIMER </s>
-0.3010 SEVEN EIGHT NINE
-0.3010 SEVENTEEN EIGHTEEN NINETEEN
-0.3010 SEVENTY EIGHTY NINETY
-0.3010 SHIT BITCH </s>
-0.3010 SIX SEVEN EIGHT
-0.3010 SIXTEEN SEVENTEEN EIGHTEEN
-0.3010 SIXTY SEVENTY EIGHTY
-0.3010 TELL ME A
-0.3010 THE WEB FOR
-0.3010 THIRTEEN FOURTEEN FIFTEEN
-0.3010 THIRTY FORTY FIFTY
-0.3010 THOUSAND MILLION BILLION
-0.3010 THREE FOUR FIVE
-0.3010 TURN OFF LIGHTS
-0.3010 TURN ON LIGHTS
-0.3010 TWELVE THIRTEEN FOURTEEN
-0.3010 TWENTY THIRTY FORTY
-0.3010 TWO THREE FOUR
-0.3010 USER CONNECTED </s>
-0.3010 WEATHER IN </s>
-0.3010 WEB FOR </s>
-0.3010 WHAT'S YOUR NAME
-0.3010 WHERE IS USER
-0.3010 WHO ARE YOU
-0.3010 WHO IS CONNECTED
-0.3010 YOUR NAME </s>

\end\
