Language model created by QuickLM on Tue Sep 19 17:46:05 EDT 2017
Copyright (c) 1996-2010 Carnegie Mellon University and Alexander I. Rudnicky

The model is in standard ARPA format, designed by Doug Paul while he was at MITRE.

The code that was used to produce this language model is available in Open Source.
Please visit http://www.speech.cs.cmu.edu/tools/ for more information

The (fixed) discount mass is 0.5. The backoffs are computed using the ratio method.
This model based on a corpus of 64 sentences and 81 words

\data\
ngram 1=81
ngram 2=144
ngram 3=90

\1-grams:
-0.8333 </s> -0.3010
-0.8333 <s> -0.2321
-2.6395 ALARM -0.2321
-2.6395 AM -0.2321
-2.6395 AN -0.3000
-2.6395 BAKA -0.2321
-2.6395 BILLION -0.2321
-2.6395 BYE -0.2321
-1.9405 CHECK -0.2960
-2.3385 CONNECTED -0.2321
-2.6395 DAYS -0.2321
-2.6395 EIGHT -0.2321
-2.6395 EIGHTEEN -0.2321
-2.6395 EIGHTY -0.2321
-2.6395 ELEVEN -0.2321
-2.6395 EMAIL -0.2321
-2.6395 EVENTS -0.2321
-2.6395 FIFTEEN -0.2321
-2.6395 FIFTY -0.2321
-2.6395 FIVE -0.2321
-2.6395 FOR -0.2321
-2.6395 FORTY -0.2321
-2.6395 FOUR -0.2321
-2.6395 FOURTEEN -0.2321
-2.6395 GOOD -0.3000
-2.6395 HEY -0.3000
-2.6395 HISTORY -0.2321
-2.6395 HOURS -0.2321
-2.6395 HUNDRED -0.2321
-2.3385 IS -0.2980
-2.3385 LIGHTS -0.2321
-2.6395 MESSAGE -0.2321
-2.6395 MILLION -0.2321
-2.6395 MINUTES -0.2321
-2.6395 MONTHS -0.2321
-2.6395 MUSIC -0.2321
-2.6395 N'T -0.2321
-2.6395 NEVER -0.2321
-2.6395 NINE -0.2321
-2.6395 NINETEEN -0.2321
-2.6395 NINETY -0.2321
-2.6395 NO -0.2321
-2.6395 NONE -0.2321
-2.6395 NOT -0.2321
-2.6395 OFF -0.2990
-2.6395 ON -0.2990
-2.6395 ONE -0.2321
-2.6395 PLAY -0.3000
-2.6395 PM -0.2321
-2.6395 SEARCH -0.3000
-2.6395 SECONDS -0.2321
-2.1624 SEND -0.2980
-2.3385 SET -0.2990
-2.6395 SEVEN -0.2321
-2.6395 SEVENTEEN -0.2321
-2.6395 SEVENTY -0.2321
-2.6395 SIX -0.2321
-2.6395 SIXTEEN -0.2321
-2.6395 SIXTY -0.2321
-2.6395 SMS -0.2321
-2.6395 TEMPERATURE -0.2321
-2.6395 TEN -0.2321
-2.6395 THE -0.3000
-2.6395 THIRTEEN -0.2321
-2.6395 THIRTY -0.2321
-2.6395 THOUSAND -0.2321
-2.6395 THREE -0.2321
-2.6395 TIMER -0.2321
-2.6395 TRAFFIC -0.2321
-2.6395 TRILLION -0.2321
-2.3385 TURN -0.2990
-2.6395 TWELVE -0.2321
-2.6395 TWENTY -0.2321
-2.6395 TWO -0.2321
-2.6395 USER -0.2990
-2.6395 WEATHER -0.2321
-2.6395 WEB -0.3000
-2.6395 WEEKS -0.2321
-2.6395 WHERE -0.2990
-2.6395 WHO -0.2990
-2.6395 YEARS -0.2321

\2-grams:
-2.1072 <s> AM 0.0000
-2.1072 <s> BILLION 0.0000
-1.4082 <s> CHECK 0.0000
-2.1072 <s> DAYS 0.0000
-2.1072 <s> EIGHT 0.0000
-2.1072 <s> EIGHTEEN 0.0000
-2.1072 <s> EIGHTY 0.0000
-2.1072 <s> ELEVEN 0.0000
-2.1072 <s> FIFTEEN 0.0000
-2.1072 <s> FIFTY 0.0000
-2.1072 <s> FIVE 0.0000
-2.1072 <s> FORTY 0.0000
-2.1072 <s> FOUR 0.0000
-2.1072 <s> FOURTEEN 0.0000
-2.1072 <s> GOOD 0.0000
-2.1072 <s> HEY 0.0000
-2.1072 <s> HOURS 0.0000
-2.1072 <s> HUNDRED 0.0000
-2.1072 <s> MILLION 0.0000
-2.1072 <s> MINUTES 0.0000
-2.1072 <s> MONTHS 0.0000
-2.1072 <s> N'T 0.0000
-2.1072 <s> NEVER 0.0000
-2.1072 <s> NINE 0.0000
-2.1072 <s> NINETEEN 0.0000
-2.1072 <s> NINETY 0.0000
-2.1072 <s> NO 0.0000
-2.1072 <s> NONE 0.0000
-2.1072 <s> NOT 0.0000
-2.1072 <s> ONE 0.0000
-2.1072 <s> PLAY 0.0000
-2.1072 <s> PM 0.0000
-2.1072 <s> SEARCH 0.0000
-2.1072 <s> SECONDS 0.0000
-1.6301 <s> SEND 0.0000
-1.8062 <s> SET 0.0000
-2.1072 <s> SEVEN 0.0000
-2.1072 <s> SEVENTEEN 0.0000
-2.1072 <s> SEVENTY 0.0000
-2.1072 <s> SIX 0.0000
-2.1072 <s> SIXTEEN 0.0000
-2.1072 <s> SIXTY 0.0000
-2.1072 <s> TEN 0.0000
-2.1072 <s> THIRTEEN 0.0000
-2.1072 <s> THIRTY 0.0000
-2.1072 <s> THOUSAND 0.0000
-2.1072 <s> THREE 0.0000
-2.1072 <s> TRILLION 0.0000
-1.8062 <s> TURN 0.0000
-2.1072 <s> TWELVE 0.0000
-2.1072 <s> TWENTY 0.0000
-2.1072 <s> TWO 0.0000
-2.1072 <s> WEEKS 0.0000
-2.1072 <s> WHERE 0.0000
-2.1072 <s> WHO 0.0000
-2.1072 <s> YEARS 0.0000
-0.3010 ALARM </s> -0.3010
-0.3010 AM </s> -0.3010
-0.3010 AN ALARM 0.0000
-0.3010 BAKA </s> -0.3010
-0.3010 BILLION </s> -0.3010
-0.3010 BYE </s> -0.3010
-1.0000 CHECK EVENTS 0.0000
-1.0000 CHECK HISTORY 0.0000
-1.0000 CHECK TEMPERATURE 0.0000
-1.0000 CHECK TRAFFIC 0.0000
-1.0000 CHECK WEATHER 0.0000
-0.3010 CONNECTED </s> -0.3010
-0.3010 DAYS </s> -0.3010
-0.3010 EIGHT </s> -0.3010
-0.3010 EIGHTEEN </s> -0.3010
-0.3010 EIGHTY </s> -0.3010
-0.3010 ELEVEN </s> -0.3010
-0.3010 EMAIL </s> -0.3010
-0.3010 EVENTS </s> -0.3010
-0.3010 FIFTEEN </s> -0.3010
-0.3010 FIFTY </s> -0.3010
-0.3010 FIVE </s> -0.3010
-0.3010 FOR </s> -0.3010
-0.3010 FORTY </s> -0.3010
-0.3010 FOUR </s> -0.3010
-0.3010 FOURTEEN </s> -0.3010
-0.3010 GOOD BYE 0.0000
-0.3010 HEY BAKA 0.0000
-0.3010 HISTORY </s> -0.3010
-0.3010 HOURS </s> -0.3010
-0.3010 HUNDRED </s> -0.3010
-0.6021 IS CONNECTED 0.0000
-0.6021 IS USER 0.0000
-0.3010 LIGHTS </s> -0.3010
-0.3010 MESSAGE </s> -0.3010
-0.3010 MILLION </s> -0.3010
-0.3010 MINUTES </s> -0.3010
-0.3010 MONTHS </s> -0.3010
-0.3010 MUSIC </s> -0.3010
-0.3010 N'T </s> -0.3010
-0.3010 NEVER </s> -0.3010
-0.3010 NINE </s> -0.3010
-0.3010 NINETEEN </s> -0.3010
-0.3010 NINETY </s> -0.3010
-0.3010 NO </s> -0.3010
-0.3010 NONE </s> -0.3010
-0.3010 NOT </s> -0.3010
-0.3010 OFF LIGHTS 0.0000
-0.3010 ON LIGHTS 0.0000
-0.3010 ONE </s> -0.3010
-0.3010 PLAY MUSIC 0.0000
-0.3010 PM </s> -0.3010
-0.3010 SEARCH THE 0.0000
-0.3010 SECONDS </s> -0.3010
-0.7782 SEND EMAIL 0.0000
-0.7782 SEND MESSAGE 0.0000
-0.7782 SEND SMS 0.0000
-0.6021 SET AN 0.0000
-0.6021 SET TIMER 0.0000
-0.3010 SEVEN </s> -0.3010
-0.3010 SEVENTEEN </s> -0.3010
-0.3010 SEVENTY </s> -0.3010
-0.3010 SIX </s> -0.3010
-0.3010 SIXTEEN </s> -0.3010
-0.3010 SIXTY </s> -0.3010
-0.3010 SMS </s> -0.3010
-0.3010 TEMPERATURE </s> -0.3010
-0.3010 TEN </s> -0.3010
-0.3010 THE WEB 0.0000
-0.3010 THIRTEEN </s> -0.3010
-0.3010 THIRTY </s> -0.3010
-0.3010 THOUSAND </s> -0.3010
-0.3010 THREE </s> -0.3010
-0.3010 TIMER </s> -0.3010
-0.3010 TRAFFIC </s> -0.3010
-0.3010 TRILLION </s> -0.3010
-0.6021 TURN OFF 0.0000
-0.6021 TURN ON 0.0000
-0.3010 TWELVE </s> -0.3010
-0.3010 TWENTY </s> -0.3010
-0.3010 TWO </s> -0.3010
-0.3010 USER CONNECTED 0.0000
-0.3010 WEATHER </s> -0.3010
-0.3010 WEB FOR 0.0000
-0.3010 WEEKS </s> -0.3010
-0.3010 WHERE IS -0.1761
-0.3010 WHO IS -0.1761
-0.3010 YEARS </s> -0.3010

\3-grams:
-0.3010 <s> AM </s>
-0.3010 <s> BILLION </s>
-1.0000 <s> CHECK EVENTS
-1.0000 <s> CHECK HISTORY
-1.0000 <s> CHECK TEMPERATURE
-1.0000 <s> CHECK TRAFFIC
-1.0000 <s> CHECK WEATHER
-0.3010 <s> DAYS </s>
-0.3010 <s> EIGHT </s>
-0.3010 <s> EIGHTEEN </s>
-0.3010 <s> EIGHTY </s>
-0.3010 <s> ELEVEN </s>
-0.3010 <s> FIFTEEN </s>
-0.3010 <s> FIFTY </s>
-0.3010 <s> FIVE </s>
-0.3010 <s> FORTY </s>
-0.3010 <s> FOUR </s>
-0.3010 <s> FOURTEEN </s>
-0.3010 <s> GOOD BYE
-0.3010 <s> HEY BAKA
-0.3010 <s> HOURS </s>
-0.3010 <s> HUNDRED </s>
-0.3010 <s> MILLION </s>
-0.3010 <s> MINUTES </s>
-0.3010 <s> MONTHS </s>
-0.3010 <s> N'T </s>
-0.3010 <s> NEVER </s>
-0.3010 <s> NINE </s>
-0.3010 <s> NINETEEN </s>
-0.3010 <s> NINETY </s>
-0.3010 <s> NO </s>
-0.3010 <s> NONE </s>
-0.3010 <s> NOT </s>
-0.3010 <s> ONE </s>
-0.3010 <s> PLAY MUSIC
-0.3010 <s> PM </s>
-0.3010 <s> SEARCH THE
-0.3010 <s> SECONDS </s>
-0.7782 <s> SEND EMAIL
-0.7782 <s> SEND MESSAGE
-0.7782 <s> SEND SMS
-0.6021 <s> SET AN
-0.6021 <s> SET TIMER
-0.3010 <s> SEVEN </s>
-0.3010 <s> SEVENTEEN </s>
-0.3010 <s> SEVENTY </s>
-0.3010 <s> SIX </s>
-0.3010 <s> SIXTEEN </s>
-0.3010 <s> SIXTY </s>
-0.3010 <s> TEN </s>
-0.3010 <s> THIRTEEN </s>
-0.3010 <s> THIRTY </s>
-0.3010 <s> THOUSAND </s>
-0.3010 <s> THREE </s>
-0.3010 <s> TRILLION </s>
-0.6021 <s> TURN OFF
-0.6021 <s> TURN ON
-0.3010 <s> TWELVE </s>
-0.3010 <s> TWENTY </s>
-0.3010 <s> TWO </s>
-0.3010 <s> WEEKS </s>
-0.3010 <s> WHERE IS
-0.3010 <s> WHO IS
-0.3010 <s> YEARS </s>
-0.3010 AN ALARM </s>
-0.3010 CHECK EVENTS </s>
-0.3010 CHECK HISTORY </s>
-0.3010 CHECK TEMPERATURE </s>
-0.3010 CHECK TRAFFIC </s>
-0.3010 CHECK WEATHER </s>
-0.3010 GOOD BYE </s>
-0.3010 HEY BAKA </s>
-0.3010 IS CONNECTED </s>
-0.3010 IS USER CONNECTED
-0.3010 OFF LIGHTS </s>
-0.3010 ON LIGHTS </s>
-0.3010 PLAY MUSIC </s>
-0.3010 SEARCH THE WEB
-0.3010 SEND EMAIL </s>
-0.3010 SEND MESSAGE </s>
-0.3010 SEND SMS </s>
-0.3010 SET AN ALARM
-0.3010 SET TIMER </s>
-0.3010 THE WEB FOR
-0.3010 TURN OFF LIGHTS
-0.3010 TURN ON LIGHTS
-0.3010 USER CONNECTED </s>
-0.3010 WEB FOR </s>
-0.3010 WHERE IS USER
-0.3010 WHO IS CONNECTED

\end\
